digraph Tree {
node [shape=box] ;
0 [label="X[2] <= 2.45\ngini = 0.666\nsamples = 120\nvalue = [38, 39, 43]"] ;
1 [label="gini = 0.0\nsamples = 38\nvalue = [38, 0, 0]"] ;
0 -> 1 [labeldistance=2.5, labelangle=45, headlabel="True"] ;
2 [label="X[2] <= 4.75\ngini = 0.499\nsamples = 82\nvalue = [0, 39, 43]"] ;
0 -> 2 [labeldistance=2.5, labelangle=-45, headlabel="False"] ;
3 [label="X[3] <= 1.65\ngini = 0.054\nsamples = 36\nvalue = [0, 35, 1]"] ;
2 -> 3 ;
4 [label="gini = 0.0\nsamples = 35\nvalue = [0, 35, 0]"] ;
3 -> 4 ;
5 [label="gini = 0.0\nsamples = 1\nvalue = [0, 0, 1]"] ;
3 -> 5 ;
6 [label="X[2] <= 5.05\ngini = 0.159\nsamples = 46\nvalue = [0, 4, 42]"] ;
2 -> 6 ;
7 [label="X[1] <= 3.05\ngini = 0.444\nsamples = 12\nvalue = [0, 4, 8]"] ;
6 -> 7 ;
8 [label="X[3] <= 1.75\ngini = 0.32\nsamples = 10\nvalue = [0, 2, 8]"] ;
7 -> 8 ;
9 [label="X[0] <= 6.15\ngini = 0.444\nsamples = 3\nvalue = [0, 2, 1]"] ;
8 -> 9 ;
10 [label="gini = 0.0\nsamples = 1\nvalue = [0, 0, 1]"] ;
9 -> 10 ;
11 [label="gini = 0.0\nsamples = 2\nvalue = [0, 2, 0]"] ;
9 -> 11 ;
12 [label="gini = 0.0\nsamples = 7\nvalue = [0, 0, 7]"] ;
8 -> 12 ;
13 [label="gini = 0.0\nsamples = 2\nvalue = [0, 2, 0]"] ;
7 -> 13 ;
14 [label="gini = 0.0\nsamples = 34\nvalue = [0, 0, 34]"] ;
6 -> 14 ;
}